<?xml version="1.0"?>
<opencv_storage>
<opencv_ml_ann_mlp>
  <format>3</format>
  <layer_sizes>
    26 28 7</layer_sizes>
  <activation_function>SIGMOID_SYM</activation_function>
  <f_param1>2.</f_param1>
  <f_param2>1.</f_param2>
  <min_val>-9.4999999999999996e-01</min_val>
  <max_val>9.4999999999999996e-01</max_val>
  <min_val1>-9.7999999999999998e-01</min_val1>
  <max_val1>9.7999999999999998e-01</max_val1>
  <training_params>
    <train_method>BACKPROP</train_method>
    <dw_scale>1.0000000000000001e-01</dw_scale>
    <moment_scale>0.</moment_scale>
    <term_criteria>
      <iterations>200000</iterations></term_criteria></training_params>
  <input_scale>
    6.5319240156418090e+01 -1.7351575620272086e+00
    6.1606713549931484e+01 -2.0369801983217561e+00
    4.9437013947210414e+02 -1.5118708276635753e+00
    1.3566047549433258e+03 -1.2296640618333445e+00
    2.7930761088939848e+03 -7.7495136067889669e-01
    2.3355878366552784e+03 -5.6262861315721602e-01
    8.0959405348717200e+03 -3.7828564879162713e-01
    4.3520378893955758e+03 -2.8520108438073738e-01
    3.8608716422740422e+03 -2.6433148714085791e-01
    2.7907236983932921e+03 -2.4906091181191956e-01
    3.2427991870655301e+03 -2.6975361718184454e-01
    2.2566805075573347e+03 -2.3837947184155081e-01
    1.0358559235384712e+03 -1.8582949046607489e-01
    5.7931047419811682e+02 -1.7121096463523600e-01
    9.3074380426195592e+02 -1.7418350962623516e-01
    6.3771282640214974e+02 -1.6701648670018726e-01
    9.8357829268180944e+02 -1.6338946452699807e-01
    1.3390149966565584e+03 -1.8473384583919755e-01
    1.5232246335155260e+03 -1.7108835991453714e-01
    5.2606021119946490e+02 -1.5449667514265400e-01
    2.3041061018492310e+03 -2.1987878713539283e-01
    1.6943029773675460e+03 -2.1424233886659957e-01
    5.9311609686133272e+02 -1.8978227408158868e-01
    1.4603127532327272e+02 -1.7554865004910811e-01
    7.6760480403303903e+00 -6.1205524806764799e+00
    7.5425421088752129e+00 -1.0159385398181588e+00</input_scale>
  <output_scale>
    5.2631578947368418e-01 4.9999999999999994e-01 5.2631578947368418e-01
    4.9999999999999994e-01 5.2631578947368418e-01 4.9999999999999994e-01
    5.2631578947368418e-01 4.9999999999999994e-01 5.2631578947368418e-01
    4.9999999999999994e-01 5.2631578947368418e-01 4.9999999999999994e-01
    5.2631578947368418e-01 4.9999999999999994e-01</output_scale>
  <inv_output_scale>
    1.8999999999999999e+00 -9.4999999999999996e-01
    1.8999999999999999e+00 -9.4999999999999996e-01
    1.8999999999999999e+00 -9.4999999999999996e-01
    1.8999999999999999e+00 -9.4999999999999996e-01
    1.8999999999999999e+00 -9.4999999999999996e-01
    1.8999999999999999e+00 -9.4999999999999996e-01
    1.8999999999999999e+00 -9.4999999999999996e-01</inv_output_scale>
  <weights>
    <_>
      -2.5473616445013048e+00 6.4342379871899373e+00
      -1.2121633770428362e+01 -3.3764857935762729e+00
      9.7928426655195366e+00 -5.2734922378920635e+00
      -1.0206518511652354e+00 5.5500063406977829e-01
      1.0440188856568737e+01 2.2748229439203254e+00
      1.4615709955869599e+01 -6.5419147054139399e+00
      5.3599921070076375e+00 -8.2077472170947736e+00
      1.4207006075470432e+00 2.0345851492033873e-01
      -2.2290566709244505e+01 -3.2259422696268456e+00
      3.1488335999108847e+00 1.9398485318069860e+00
      -2.0025981082680502e+01 4.0675263845612859e+00
      2.0297161194468984e+01 2.8362068659115804e+00
      -4.7977959946043400e+00 9.9772252798199119e+00
      2.5745789527525114e+00 -2.6861355807758147e-01
      -1.7942980068443608e+00 -1.8989098289235671e+00
      4.7397602711584392e+00 8.3784623739561965e+00
      1.5746749406242968e+01 8.6825781255336809e-01
      6.1047102060363645e-01 1.9250322997323381e+00
      1.2104266987795837e+01 -2.2400091050677737e+00
      -2.8447673383725974e-01 3.4979110284904382e+00
      -9.9177958305140503e+00 -1.6377770938030018e+01
      1.0762893142450952e+01 -3.8100848664535186e-01
      1.8227232686137476e+01 3.4570863307808213e+00
      -1.4302439872040731e+01 -1.9621823726618231e+01
      2.4847511003706785e+01 -3.6218988678291577e+00
      -1.6902096862428269e+00 -8.7260537663681603e+00
      -6.2114135259604888e+00 -1.0255621773247130e+01
      4.1688551756044800e+00 -2.8291691408434807e+00
      1.0303663016758102e+00 -3.9632436058431750e+00
      -6.9483101653001391e+00 3.5607828615707116e-01
      -4.2414476620980981e+00 9.3645821446232735e-01
      1.1485858934296771e+00 -4.7580097998387760e+00
      9.1922793050657603e+00 3.0704319992696507e+00
      5.6533456511923328e+00 4.5586599294442784e+00
      7.7075686210660264e+00 -2.3653173109985444e+00
      4.5404152303017185e+00 1.0495365801507128e+00
      1.5517129247809414e+01 1.5784997542055539e+00
      -1.9879173808480811e+01 9.5685533780067666e-01
      -9.9753760543285039e-02 2.9385921649807276e+00
      7.0106464067169236e+00 -6.1405684698021423e-01
      -1.3418547011761611e+01 1.2474831173278060e+01
      -1.6942561607062789e+00 9.8551861344135694e-01
      1.5456117319519662e+00 -5.3898846998042593e-01
      3.8339903350905740e+00 8.2784298765167623e+00
      -1.8334831571712868e+00 -1.0437836702490842e-01
      1.1163675616468465e+00 9.6334040148305056e-01
      4.5996428398093308e+00 -3.5485403350972242e+00
      -3.6788239625844184e+00 2.7865291375501875e+00
      -9.6500463518050683e+00 2.0522487090323458e+00
      6.4411100246392336e-02 9.9577368616248954e-02
      -2.0269775018399385e+00 6.8402228473336124e-01
      1.2846509568558901e+01 1.1675263380605619e+01
      -7.5055184769388346e+00 5.2229805322436533e+00
      -1.4667602861616196e+00 -3.8540981197176087e+00
      -1.4162693956384773e+00 7.1954588917601159e-01
      1.7465584932259897e+01 1.2563674510762184e+00
      -5.5400965906703235e+00 -2.9331409099705574e+00
      5.1975906457964278e+00 1.8738603240365026e+00
      9.6654226717762859e-01 -2.4376430157965463e+00
      1.0122175368447786e+00 -2.3180564289020089e+00
      -8.4836042107896947e+00 -2.0574070796913970e+00
      3.4430573025373392e+00 2.8360066791459047e+00
      -1.6664336003044469e+00 -1.1627928848228115e+00
      -4.7117782639196610e+00 1.5617349306309031e-01
      4.2287914955284151e+01 3.8352309292708049e+00
      3.8189581383648412e+00 1.2165184518807251e+01
      4.7755348840617886e+00 6.3173776015336554e+00
      -1.2361459707944474e-01 8.7720951300091654e-01
      -1.3850564099363849e+01 5.0255013346216755e+00
      1.1021592553053610e+01 1.7364857105601368e+00
      1.1171720336954490e-01 3.5448684415323584e+00
      1.0035089543907906e+01 -1.7340143032490827e+00
      3.1550211844434344e+00 5.2414094791200032e+00
      -8.2331716818855608e-02 4.2453940655340405e+00
      -4.9912928902057399e+00 2.3082173271932218e+00
      -2.8240235951522950e+00 1.3523415693158289e+00
      -1.7446795072551485e+01 -1.5084899539747616e+00
      -6.7157624743701945e+00 -8.3807731191871759e-01
      -2.4481636984243469e+00 -5.4171450304701221e+00
      6.8333546923857091e-01 2.4915347263759255e+01
      5.3429995501492193e+00 7.0073265276658070e+00
      9.2455852885376444e-01 -4.0243510348913860e+00
      -3.2466217937857555e+00 -3.6567678333290963e+00
      1.2882011993907511e+01 -2.5064099819635950e+00
      -7.8131413826741838e+00 1.7201422654261855e+00
      -1.3567766927616637e-01 9.3119603899941472e-01
      -5.2712407869700604e+00 1.5479069494569102e+00
      3.7242020657734667e+00 -6.7123613727228781e-01
      6.0480507820121634e+00 -3.3344594595803044e-02
      -1.1699391784526993e+00 1.3207572916321040e+00
      7.4799974980343886e-01 -1.6839769977973551e+00
      -2.3294400465806162e+00 6.1172764136579338e-01
      -5.9426365328998418e+00 -2.0413916201962734e+00
      -5.4007213057079113e+00 -5.4018269380369892e+00
      9.4284951822966736e+00 1.0322422330240189e+01
      1.7095365335979213e+00 -4.4024744595989107e+00
      -1.0724460674854148e+01 2.1729408490296311e+00
      -3.8807541270606873e+00 -4.0267399158046899e+00
      1.5452968162856515e+00 5.9357839827035441e-01
      7.6090453671975000e-01 9.3435822238126431e-01
      -1.9659675472908278e+00 -2.8329192197560022e+00
      8.6336473787625739e-02 -2.0170341670947400e+00
      6.8116142279308400e+00 1.0999828064694943e+00
      -6.1784708568534761e+00 2.4446410059210528e+00
      -3.3855969317111290e-01 -3.2326693322218381e+00
      -9.3118319784971448e-01 2.2591400988117152e-01
      -8.9334300660730737e+00 -1.4269363193074835e+00
      1.5761246266166908e+00 -3.3973498223355998e+00
      2.6292354242630540e+00 3.2417236451065099e+00
      -6.1251255343177009e+00 -1.7938660094201913e+00
      -6.0218086708925886e+00 -2.6950450577347831e+00
      3.2395723709666424e-01 -3.4473800429990189e+00
      -1.0897429887643726e+00 -1.3685774923381486e+00
      -2.8808078970616580e-01 9.5472874962509369e-01
      -1.9616605448109170e+00 2.5725449250454391e+00
      -3.2840011192294289e+00 2.6563257717418236e+00
      8.6517257098771587e+00 -7.5045618512925327e-01
      -1.9812296138517499e-01 1.5533072522496092e+00
      3.9609279824242734e+00 -1.5431203926450637e-01
      -5.3853049175050653e+00 -6.1152648649297581e-01
      -1.3821035979993653e+01 4.2776942495407591e+00
      5.9029036773444474e+00 -3.0245806844124523e+00
      9.4199782501714480e-01 5.1735616826645883e+00
      -3.2458387592244748e+00 -1.6743397772471241e-01
      -4.5386570389716295e-02 3.8791314346962458e+00
      4.7223148393970247e+00 -2.5633578353654465e+00
      -7.4843065598435221e-01 7.1250209501339823e-01
      1.8769238138195992e+00 7.9912458861294733e-01
      -8.1041080491967965e-01 2.6718485232822275e+00
      -2.7128171556257090e+00 -1.5715844303829114e+00
      6.7202036759781814e-01 1.6903497113889714e+00
      -1.1387032702640381e+00 -2.0324224480080795e+00
      2.9081308214799879e+00 -3.7967286613104694e+00
      -1.1494977098295047e+00 -2.3032433788865554e-02
      -1.4190483827349089e+01 1.3963012524883485e+00
      6.0858177842514136e+00 -2.0679721767486159e+00
      -1.5515147786496686e+00 2.9372130770840825e+00
      -4.0283280521538920e+00 -8.6328565414207381e-01
      3.1216300112295409e-01 2.8640839962938678e+00
      -1.4482030124438015e+00 -4.2790923400262093e+00
      -1.9130313497298499e+00 1.0667943593777127e-01
      6.3676765222975173e-01 1.8236884313002579e+00
      -3.3655849802642699e+00 1.7510239563583068e+00
      -2.1120381754241024e+00 -8.8540082345117765e-01
      3.6869249450331614e+00 -1.3557236899235481e-01
      1.2174809013293831e-02 -1.5865707925279435e+00
      1.3955299723431425e+00 -4.8005287539729935e-01
      -5.9497995337609648e+00 -1.5872630626219342e+00
      -1.0720314019170036e+01 4.9647008515367103e-01
      3.9062146152135035e+00 -3.1918449333520709e+00
      9.4175679229258114e-01 3.1812885489282322e-01
      -2.2408617034108040e+00 -1.8121902942717225e+00
      6.4399399012817360e-01 2.0556645800107903e-01
      -2.8564256192621169e+00 3.7668177893191218e-01
      -1.6914146218846067e+00 1.6484500975085825e+00
      8.2361833736295922e-02 3.3800232244237178e+00
      -2.2491470517314589e+00 1.3892585567888731e+00
      -3.4396752497069509e+00 2.8726769980679151e-01
      1.4015747286427984e+00 4.4724454605351877e-01
      -8.2204834659806825e-01 -4.1894353052383764e+00
      4.7168005213237931e+00 -3.3866875504429137e+00
      -9.0867309044828404e-01 -2.4672401821780992e+00
      -7.7184560453566027e+00 1.7422029681069058e+00
      3.0338037652331624e+00 -9.5799972864267480e-01
      -9.1956028283275634e-02 -7.0213095384520016e-02
      -1.6882699003016470e+00 -1.8213809063967090e-01
      1.8518206107797253e+00 -2.4354696595914040e+00
      -1.9559378847582962e+00 6.0367662269370970e-01
      7.7003902703439667e-02 3.8799138599648492e-01
      1.4016052985744845e-01 3.3596440990757372e+00
      -1.5763232750638532e+00 1.0655840175631957e+00
      -2.4504323178832301e+00 -4.8448243589410595e-01
      -1.2514890102936944e+00 5.5970981295716848e-01
      -3.6558191839154326e-02 -2.6762941742505126e+00
      5.5996233827233457e+00 -4.0632649685817840e-01
      3.1636986653343679e-01 -1.4141077697838498e+00
      -4.1148538341261354e+00 1.8162158238207136e+00
      5.3888363237052916e-01 -1.6203534136664395e+00
      1.8421881719691493e+00 -9.1161627470594433e-02
      -1.1589475442103325e+00 4.2846900586607123e-01
      2.1281325436617253e+00 8.6567136665304156e-01
      -2.4591974637322611e+00 2.8082609093305894e-01
      2.1055567477178530e+00 -1.7061136872277470e-02
      -2.0971055151083415e-02 2.1728749548475950e+00
      -1.2704271909284759e+00 1.1446919328229772e+00
      -1.3421980217292642e+00 -1.3954817714284935e-02
      -1.9231802387919050e+00 9.8308731994952858e-01
      3.9865457027464818e-01 -1.6539427347122941e+00
      3.6287625977598168e+00 1.7835054786722806e+00
      -2.3839512368078289e-01 -6.4100322057026549e-01
      -3.3520498030310164e+00 1.1438173411690675e+00
      -1.9164012831404709e-01 -1.8703252127229895e+00
      1.6256477931899476e+00 6.7489147325487908e-01
      -2.3441346651182378e+00 1.3307564100441662e+00
      2.4677118392892359e+00 1.8602961286621804e+00
      -2.0908792445556674e+00 2.3767852131789291e-01
      5.7229100979690320e-02 5.4794958919509007e-01
      1.6258297477932751e-01 1.6472657941666680e+00
      -1.4719942821559759e+00 4.6808036899388672e-01
      -1.7652605135031390e+00 -6.8866897406859445e-02
      -1.4670343475770031e+00 2.0123271696960293e-01
      8.5185332622753268e-02 -3.1561628759523388e+00
      4.3331484402941953e+00 -2.4251531600049856e+00
      -3.8544812564004832e-01 -3.6214453309077838e-01
      -4.4763020974529715e+00 2.7268616963634490e-01
      -1.0858519024407758e-02 -1.5947627848665815e+00
      1.7315027243061876e+00 5.4865571020752379e-01
      -1.5841104390299530e+00 6.0145265337634501e-01
      2.5540979094057898e+00 4.6993695030568838e-01
      -2.1619417427435081e+00 9.0503369664907241e-01
      1.5035434879010166e+00 1.7096870224359709e-01
      2.6647985253848883e-01 2.8402705395379635e+00
      -1.0455520877691757e+00 1.3226160913856078e-01
      -1.6592069868492887e+00 -2.2771355660814765e-01
      -2.1979056114920823e+00 5.1564821402023109e-01
      2.0631896134459604e-01 -2.1853813179591226e+00
      2.9166319561193812e+00 -9.6051406073421441e-01
      2.2917723007852650e-01 3.7377952622183290e-03
      -3.6259507519490044e+00 -1.1603942361697815e-01
      -8.5424867916860117e-02 -2.4041235895364017e+00
      1.8400120667573725e+00 8.5658085180115195e-01
      -2.2683168626288022e+00 1.0903363863970892e+00
      2.3373725912789705e+00 2.5953889173339735e+00
      -2.1686855860698255e+00 1.2348270564751108e-01
      7.4126196209961159e-01 -2.1813863526726934e-01
      -1.4545137465014910e-01 1.1352963746998714e+00
      -9.6793298831067898e-01 3.4215724425183136e-01
      -1.2403943463394986e+00 -2.4803327867906097e-01
      -1.9211626774091524e+00 4.4897532310911714e-01
      8.2404078969315964e-01 -1.7574951402452497e+00
      2.9170460708764816e+00 -7.6247817761523018e-01
      -3.4308068240325845e-01 6.3921995837006335e-02
      -3.7878960938485480e+00 4.7535311123549551e-01
      4.4339157981865257e-01 -7.0733241985791484e-01
      1.5669786357094904e+00 1.2407075397545488e+00
      -1.3205517576401964e+00 1.3390340852012956e+00
      2.1638045382453712e+00 -2.8396539646759367e-01
      -2.0528619904011611e+00 9.5682061532473342e-02
      2.3998328309830619e+00 5.2818843913914970e-01
      8.0407827458241016e-02 4.2913549629034300e+00
      -8.9204068343702414e-01 2.8979969262732957e-01
      -1.8271399854884625e+00 1.8265303355091558e-01
      -2.0810668066801536e+00 2.9849161715508277e-01
      -1.9624425284999265e+00 -1.1440338533970800e+00
      2.9066514047720604e+00 -1.1335066909917868e+00
      1.0561616803348119e+00 2.2856724876594234e-01
      -4.5227517594704665e+00 4.9342242042431311e-01
      1.1151219086950792e+00 -1.5414567540764317e+00
      1.1522937589323508e+00 1.4895984957498911e+00
      -2.9639921209584101e+00 1.6549156748151248e+00
      2.5594018097002529e+00 -1.5898897203109501e+00
      -2.1349883637896951e+00 2.4805592054366907e-01
      7.1527806150979989e-01 -1.9210570643108796e-01
      -1.6817477978967471e-01 4.5056095713299715e-01
      -8.9292654245510217e-01 3.7904128618512073e-01
      -1.5739037427121638e+00 -1.9407225179036811e-01
      -1.8900104325750324e+00 2.5333190125627575e-01
      7.0281625042304174e-02 -6.9777364634944439e-01
      2.7332413476206976e+00 1.0028487828237931e+00
      -3.9734189293380168e-01 -2.2781266830206273e-01
      -3.7530608254906719e+00 2.9467676261673237e-01
      1.1403667513704485e+00 -8.8714656400916614e-01
      1.9456694282378624e+00 1.7795777812831701e+00
      -6.0901117274087724e-01 1.3473567588926985e+00
      2.4636224696636648e+00 -3.1140274061881494e+00
      -1.9205201548323605e+00 -1.5378149863272472e-01
      8.4357696401644056e-01 -3.4241053549116329e-01
      -2.0992812553185702e-01 4.2511244600539722e-01
      -1.0132910039083980e+00 -1.6528556883908117e-02
      -1.0804873176582579e+00 2.1281045712803362e-01
      -2.1674642418963725e+00 3.7789600572761001e-01
      -1.0181001356566017e+00 -1.2878659587704051e+00
      1.6716215849538980e+00 1.1579659568736647e+00
      -1.7328558338067259e+00 -8.8781008197178921e-02
      -4.0855104907198374e+00 7.2684983180550555e-01
      3.5448262679333631e-01 -2.2755937237747790e+00
      5.8700427277282829e-01 8.5480378036654453e-02
      -1.9867213141029014e+00 4.9115599166553986e-01
      2.0476808684280745e+00 1.0974769132039217e+00
      -1.7523448393609453e+00 -1.6699772820665235e-01
      3.9489408102622064e-01 6.7756679501845130e-01
      -2.8081969289701196e+00 1.2132925314072296e+00
      5.7378059211481303e-01 1.2068373622004529e+00
      -1.2770842309763863e+00 2.9746040420254127e-01
      -1.3542021808616369e+00 4.4754895493319131e-02
      -1.1311080833530431e-01 -7.9921821213761610e-02
      3.5450503832895577e+00 3.1138956729889533e+00
      -2.3550613297915565e-01 -1.9983818436067742e+00
      -5.1825425756409578e+00 1.1132168668804365e+00
      5.1597105305766462e+00 -1.0456944542569169e+00
      -4.8864207308116114e+00 2.7386736040873854e+00
      -1.3413116864826446e+00 3.6442573522787205e+00
      3.0304158371935097e+00 -3.4993062736804497e+00
      -1.6413374587669003e+00 6.2949782120576991e-01
      6.0236223947806111e-01 8.6763406860744074e-01
      -2.9315286511122238e+00 3.8791743736347584e-01
      -2.6877313576679246e-01 1.2134408484774313e+00
      -1.4590177965912927e+00 5.4871926977656638e-01
      -1.1503399929435421e+00 -5.4686112451025992e-01
      -1.6051841507193182e-01 -5.9285873272330047e-01
      4.6957323762565739e+00 2.7622436468806555e+00
      -6.9861259359910000e-01 -1.7069552277496989e+00
      -3.5449233926259489e+00 1.3588636257501967e+00
      1.1582101265676061e+00 -3.2386871122372582e+00
      -8.0083152104210331e+00 2.0227261346112662e+00
      -1.6262342959226979e+00 2.0776883088614686e+00
      1.9201185555701232e+00 -4.5229903264169097e-01
      -1.7961396408598989e+00 9.2150445974712758e-01
      1.8542191133244177e+00 6.2605199369120890e-01
      -1.0226573197202706e+00 2.5362195792011455e-01
      -9.2663202058052863e-01 3.2164449400779027e-01
      -1.7322743680477077e+00 1.0301852836481973e+00
      -1.9229070870421294e+00 -8.2127529258038193e-02
      -1.3493649211459726e+00 -1.0655889365095381e+00
      2.0961803453154482e+00 2.3561495257644611e+00
      -1.1114430800772710e+00 -1.2955775281610590e-01
      -3.3674641507302976e+00 1.0339897815890853e+00
      5.1452106723954638e-01 -3.8007699868052165e+00
      -6.9035216948274831e+00 1.2592509288842137e+00
      -1.9521788987030100e+00 1.3182920024024634e+00
      1.8238754164048185e+00 4.0991407217137938e+00
      -1.7771741811120565e+00 3.8283166068271185e-01
      1.2565061641614446e+00 2.6123837291620260e-02
      -6.6978619593082545e-01 -1.3303956420057853e-01
      -6.4885292466203914e-01 2.4330281258580574e-01
      -1.9675018877316297e+00 8.8749936863657153e-01
      -2.1074065441412815e+00 1.1546602989694198e-01
      -2.6418653788125834e-01 -1.0322354691143898e+00
      2.0579244460670210e+00 2.6758702967120440e+00
      -5.1038426959124161e-01 2.7727292167108469e-01
      -4.0853007338288423e+00 2.2481492482152152e+00
      1.0745376101530371e+00 -3.5183129868466874e+00
      -3.5795058695533259e+00 9.5503470232104803e-01
      -9.5199163252868957e-01 1.4243593674672486e+00
      2.1721322031720263e+00 5.5977807973610956e+00
      -1.7232010094610093e+00 3.1144559008611839e-02
      -7.8179019803038119e-01 -2.7754086512497844e-01
      3.5587029268085657e-02 7.3759054832986359e-01
      1.9621068551855190e+00 -6.7667771317177978e+00
      2.5139994667946991e-01 1.1770404918996618e+01
      7.7178489607530105e+00 -4.4105173411339171e+00
      3.0295310314201140e+00 3.5452520253768984e+00
      8.0765230263174530e+00 2.7737147685920651e+00
      -6.0946417213004329e+00 5.1842470058442069e-01
      2.2320767299289472e+00 -2.3895009594143160e+00
      -6.9272080070998987e+00 -5.3178795586691914e+00
      1.9343997805734716e+01 -1.9366253266130284e+00
      -6.4441379083508759e+00 7.0129333122135526e-02
      -4.6578690572275052e+00 -3.1678951652618190e+00
      5.3111771173470874e+00 -1.2109217375797412e+00
      1.0883276202551926e+00 -1.8529900403328398e-01
      9.1326817041293706e-01 -1.6771772082154255e+00
      -4.6756890270366753e+00 6.9950926691378017e+00
      5.1681018698287312e-03 -1.1899389223171042e+01
      -1.0275533113394960e+01 4.1330463981786814e+00
      -4.5950331741072530e+00 -2.9980339506456941e+00
      -7.8316055078156550e+00 8.6944728714518305e-02
      4.5715920147304363e+00 -4.5126028777243982e-01
      -1.4208468261848850e+00 1.9606879058861417e+00
      8.2934083458379728e+00 7.5516874020961477e+00
      -1.9390925781078568e+01 1.5996047940073286e+00
      4.4228692616999030e+00 5.2714645871729293e-01
      5.8633891579407136e+00 2.5546189638323202e+00
      -5.9825258582641867e+00 1.6107590721694203e+00
      5.8578492272936744e+00 7.1758598097657451e+00
      -2.6255382036372827e+00 6.2666654655948397e+00
      7.6190843934993460e+00 2.8873604089466145e+00
      3.9695458886527213e+00 -4.8054258957226255e+00
      8.4397328099351068e+00 -3.9713821642863518e+00
      -1.2730449398951434e+01 1.0820332195534851e+01
      -1.3863644989617061e+01 -1.0936184255311591e+01
      3.3703686205684718e+00 -9.0261156804034854e+00
      2.4450140793713167e+01 -7.0027588439533330e+00
      3.6473817802327142e+00 2.8192635972645334e+01
      -1.5003640513912256e+01 8.2905808333208277e+00
      3.0721575458630728e+00 -1.8765807480591703e+00
      -1.3852965392220796e+01 2.6337681151731700e+00
      1.0529548130230165e+01 5.5731481075698435e+00</_>
    <_>
      2.1137597252363456e+00 -1.3505090807290310e+00
      -2.6301781885079687e+00 -1.9761522949191082e+00
      3.0720364056179501e+00 2.0706382009967030e+00
      2.5283322878577645e+00 4.0316072882044079e-01
      -3.1665720962093116e+00 -1.1391490971758642e+00
      3.2530227954401508e-01 -2.1728575069181355e+00
      7.1023024393740251e+00 -5.1956925255773756e+00
      -4.2518201158231778e-01 -3.2648172871442718e+00
      -2.9625131027077609e+00 -3.1715738054926002e-01
      6.0297773960779177e-02 2.6167457487432166e+00
      -3.9772386773664601e+00 -2.9062151094536945e+00
      2.9849477967290654e+00 3.4239878260684198e+00
      2.1680617940959586e+00 -2.4496930266316670e+00
      2.9652561619109568e+00 -1.8504910383150648e+00
      2.3502650297888423e+00 4.2861618556927734e+00
      -6.8870076818692496e+00 2.6412742777232601e+00
      3.8065138402901377e+00 -6.0260559051127087e+00
      -3.4347930674504319e+00 -7.4690090591818254e+00
      3.4896963349301982e+00 -4.1003624049581191e+00
      4.7073968537748856e-01 -4.0267173253615424e-01
      -1.1432444934156087e+00 -3.8336317608283417e+00
      -9.0754848683470524e+00 8.2111041776401350e-01
      -6.0858947391823879e+00 -1.1284244358316471e+00
      1.5932299108003942e+00 -2.9193332202488720e+00
      2.4008860623362356e+00 9.2278881861762887e+00
      3.7795125723559568e+00 -3.9766185570080839e+00
      -7.7416013920432150e+00 2.2835775126909539e+00
      3.1585088542737094e+00 -5.0526903029538213e+00
      -3.6202172110541495e+00 3.0667965564101949e+00
      -4.6029444189622204e+00 2.9501286918167446e+00
      -7.5164877046679788e+00 1.2520604160991780e+00
      3.8961350362294449e+00 5.0896505051467145e-02
      1.7871280322079479e+00 3.0417169661261796e+00
      2.2034859857821059e+00 -1.5549782065227602e+00
      6.5036025531111985e-01 -6.3577251797245982e+00
      -8.0308916414841534e+00 3.9483096630109711e+00
      -1.8105635679414425e+00 -1.3066264340201557e+00
      -1.9118376165701215e-01 2.9027026354405980e+00
      -1.4979370424417926e+00 -6.1055957962003333e+00
      6.8921009004296012e+00 -7.5423177687512348e+00
      1.3580661494825981e+00 -1.0142061989094611e+01
      -4.8381385667285892e+00 3.4440133772639875e-01
      -8.2103381140674148e-01 -2.6406933918624365e+00
      -2.7552444350145899e+00 1.2664240553093682e+00
      4.4566517325590098e+00 1.9004875498970890e+00
      -1.0179520644689701e+01 8.1223141911667085e+00
      1.8171246960699288e+00 -4.4233314732003404e+00
      -3.2623177996507446e+00 -5.6999598431543967e+00
      5.4039606867105272e-01 6.9105915512329661e+00
      4.7648745560682260e+00 3.3947677121114923e+00
      1.9732818134005237e-01 -8.4440838077497737e+00
      -3.7001937654627054e-01 3.1281219905909494e+00
      -2.5651590491132619e+00 9.3562443389462864e+00
      2.2764415019769597e+00 3.6118067067972288e+00
      7.7773465128113326e+00 3.9074427506988441e+00
      5.1275864736190453e+00 1.3042495116333393e+01
      5.9827010545521784e+00 -1.0885799815469661e+00
      4.1860995451432084e+00 5.4810356649220182e+00
      -2.3849454555528973e+00 6.9780360157778150e+00
      -5.1129286282938224e+00 2.1158493382125556e+00
      2.4600927534989183e+00 -6.1273657540544484e+00
      6.7929949831031108e-02 -3.5379884966375053e+00
      5.5226272687865317e+00 -4.1921882085091671e+00
      -1.2276249020068910e+00 4.8016657624407113e+00
      -1.8961748367892386e+00 -3.5264507327849750e+00
      -7.1067382179990570e+00 -5.7510406004246251e-01
      8.3960815298794689e+00 5.3599658299977353e+00
      1.2065061402204904e+00 -1.8381014952524077e+00
      -8.1540343000809909e-02 -3.5702870757688547e+00
      2.0128692265709627e+00 -3.1517092616539819e+00
      -7.1301178564029124e+00 -6.5285889316972337e-02
      -3.5760247852416747e+00 3.8111174965536543e-01
      3.7198612472826591e+00 9.6534887597803754e-01
      -1.7961773017505687e+00 5.4373048678448654e+00
      2.6118073795526886e+00 -6.3544281061965977e+00
      2.4640333493096813e+00 -3.4375044884573558e-01
      -4.1290283098451717e+00 -2.5431193395393845e+00
      4.3411903048216613e+00 5.9696281871351839e+00
      2.2096251052009266e+00 -1.3381065468476796e+00
      1.3082886451074152e-01 -6.1357487961274570e-01
      -9.2788436175075812e+00 4.0883400709496504e-02
      2.9797242561892214e+00 -3.7840724458155062e-01
      -1.8478836231096507e+00 -6.8274793005049697e+00
      1.0733618107733989e+00 -8.9475323742209692e-02
      -1.2478168263641656e+01 3.5048743481813909e+00
      -3.4737888711301927e+00 2.5301086828662651e+00
      3.0781550529572668e+00 4.9413100292549981e+00
      -5.9670118994380261e-01 -5.3215026308308353e+00
      -2.7510822782570100e-02 5.1844325282400332e+00
      -4.5299126439824375e+00 4.0495318865233415e-01
      -1.8834879618484339e+00 6.2250356368487714e-01
      -6.0543690746085481e+00 -2.1407516558086668e+00
      -3.6446968167308708e-01 -1.2853008116011559e+00
      5.3017545530319654e-01 7.9486785285785784e+00
      -6.2134805652981804e+00 -1.8682632085234359e+00
      -5.8042179566009136e+00 1.0696524377858770e-01
      4.4482545112009317e+00 1.3355158351556322e+00
      -1.9535898978609478e+00 3.6795657204655918e-01
      -1.0256128553816707e+01 -4.7578677401649152e+00
      -5.6984680422195195e+00 -9.1129673841346115e+00
      -3.4524861446901935e+00 -5.5469749079101671e+00
      -1.2905247746870501e+01</_></weights></opencv_ml_ann_mlp>
</opencv_storage>
