<?xml version="1.0"?>
<opencv_storage>
<opencv_ml_ann_mlp>
  <format>3</format>
  <layer_sizes>
    26 24 8</layer_sizes>
  <activation_function>SIGMOID_SYM</activation_function>
  <f_param1>2.</f_param1>
  <f_param2>1.</f_param2>
  <min_val>-9.4999999999999996e-01</min_val>
  <max_val>9.4999999999999996e-01</max_val>
  <min_val1>-9.7999999999999998e-01</min_val1>
  <max_val1>9.7999999999999998e-01</max_val1>
  <training_params>
    <train_method>BACKPROP</train_method>
    <dw_scale>1.0000000000000001e-01</dw_scale>
    <moment_scale>0.</moment_scale>
    <term_criteria>
      <iterations>200000</iterations></term_criteria></training_params>
  <input_scale>
    1.0069206628576241e+02 -1.5495465159192943e+00
    7.6643041793995948e+01 -2.0637730032304109e+00
    8.5674274180803070e+02 -1.6540836063171391e+00
    1.8094779054297262e+03 -1.2668617786237835e+00
    4.5478248538305079e+03 -6.3002649521159737e-01
    4.7629699480823374e+03 -2.9272341882599828e-01
    8.2688694344915184e+03 -3.6122379600525367e-01
    4.5993729373005308e+03 -2.4391351725040575e-01
    5.2498478534399819e+03 -1.8514983530738871e-01
    4.3131357298165276e+03 -2.1757048251676814e-01
    4.8578142502477722e+03 -2.4715043097135692e-01
    2.3516310290202405e+03 -2.3930678115191145e-01
    9.9930082896867100e+02 -1.7449428308463674e-01
    3.7921975872420427e+02 -1.5480077559946942e-01
    8.2913304103732958e+02 -1.6070225918564213e-01
    1.0652339068649187e+03 -1.7103153288594897e-01
    1.0616686672406447e+03 -1.5831723074195725e-01
    6.1897175460247820e+02 -1.5547277317590411e-01
    1.2906663896304797e+03 -1.5812757689051393e-01
    1.1139204518643367e+03 -1.8090540227034896e-01
    1.5356602216177712e+03 -1.6962751882224744e-01
    7.7597167624096960e+02 -1.7600621898836075e-01
    6.7016027646648820e+02 -1.8443965275086446e-01
    1.3151811077574953e+02 -1.7529570106330825e-01
    7.6592423607145470e+00 -6.1052807072171209e+00
    7.3588728522688038e+00 -1.1320702474218911e+00</input_scale>
  <output_scale>
    5.2631578947368418e-01 4.9999999999999994e-01 5.2631578947368418e-01
    4.9999999999999994e-01 5.2631578947368418e-01 4.9999999999999994e-01
    5.2631578947368418e-01 4.9999999999999994e-01 5.2631578947368418e-01
    4.9999999999999994e-01 5.2631578947368418e-01 4.9999999999999994e-01
    5.2631578947368418e-01 4.9999999999999994e-01 1. 0.</output_scale>
  <inv_output_scale>
    1.8999999999999999e+00 -9.4999999999999996e-01
    1.8999999999999999e+00 -9.4999999999999996e-01
    1.8999999999999999e+00 -9.4999999999999996e-01
    1.8999999999999999e+00 -9.4999999999999996e-01
    1.8999999999999999e+00 -9.4999999999999996e-01
    1.8999999999999999e+00 -9.4999999999999996e-01
    1.8999999999999999e+00 -9.4999999999999996e-01 1. 0.</inv_output_scale>
  <weights>
    <_>
      -3.7493307857665035e+00 -5.5601789651024158e-01
      3.2207568686928076e+00 -1.1009735662242039e+00
      5.5347064436052706e+00 4.1820493974417836e+00
      5.5624679458631290e+00 -4.7696251936728977e+00
      -2.0901219923619525e+01 1.4189617923245770e+01
      5.1723598653426297e+00 -7.7016894454007301e-01
      -6.0802568198951600e-02 2.8189813720511960e+01
      3.7657038650596197e+00 -1.6535745542973061e+01
      -1.5967711687116392e+01 -2.2460702780389169e-01
      -6.3232097887818028e-01 -2.6598378119039019e+01
      3.0699500292766921e+00 -1.1618348381618706e+01
      2.3773089951889830e+01 -9.0691916074448251e+00
      7.9126297973552564e+00 3.2179510292761697e+00
      -1.2645709828173043e+01 -4.8776923960720486e+00
      -9.6451870463383563e-02 6.5935170640051117e+00
      1.6546474041448260e+01 1.2741904302574811e+01
      1.4471416065995284e+01 -2.2896339855676558e+01
      -3.5570195538119211e+00 -7.4804565082905974e+00
      2.6477898491183649e-02 -1.5588315461015409e+01
      -1.4556691158463709e+01 -2.6454249322690742e+00
      5.1837519229454481e+00 1.0705787502804341e+01
      1.0946951424189044e+00 -6.3502773648584636e+00
      2.2848108730070507e+01 2.1130582985912366e+01
      -1.2187426961616790e+01 1.1670580158703160e-01
      -7.0187264188816378e+00 -4.6125308983680391e+00
      -2.8973430869070189e+01 8.9901644004334358e-01
      6.7473197138679479e+00 9.7004849518929763e+00
      -4.9307073683177682e+00 -8.2254146813766982e-01
      -3.9760360855898074e+00 -1.8412909375682585e+01
      3.9493580976508844e+00 1.9414839463592413e+00
      2.3367806711711020e-01 -4.3716882236550250e+00
      6.0540465861928281e+00 1.0430377980045973e+01
      5.5430551492926661e+00 1.5819411438590178e+01
      -8.9730878777329759e-01 1.2747139448434031e-01
      1.3710380940451941e+01 2.3873589030254802e+01
      -1.5272584859201949e+01 9.7061668384277340e+00
      9.1343656592238887e+00 -8.2725228593594409e+00
      2.1625066769356704e-01 -1.1787947489858850e+00
      -1.5566287081081562e+00 3.6423591521061724e+00
      8.5940824553658268e-01 -2.4198777976704400e+00
      7.7557452916706504e+00 2.5542685901777816e+01
      1.1518800255232575e+00 1.7633075548031851e+01
      1.9742736088443989e-02 1.1520624296598683e+01
      1.5636919825086809e-01 -6.1111466221747852e+00
      1.2700031813243317e+01 7.4141659998675680e+00
      -4.1183728136571957e-01 1.9126914957319087e+01
      -1.4831689878118095e+01 -8.2542507886332950e-01
      8.6408497727204949e+00 -6.3224405485872319e+00
      2.9817844027007059e+00 -1.6570416312175755e+00
      -2.6776687823472152e+01 -3.2553285179501583e+00
      -2.1386797481353321e+00 4.8105832157380096e-01
      -8.7129424351250613e+00 3.8468647266752867e+00
      3.2425172060436345e+00 1.2376225277493488e+01
      7.8489464291858164e+00 8.9635978400131560e+00
      1.7873702758869159e-01 5.2244251124838810e+00
      -9.8044870859256283e-01 -1.6246777816504594e+00
      1.6366647657003547e+01 -1.3868110339185304e+01
      -5.7107794355741637e-01 3.3656277371204318e-01
      4.7214792708391329e+00 1.0753368045155000e+01
      -4.7714335592729569e+00 4.4219092837092000e-01
      -3.6124129106216030e+00 -6.7024891866359724e+00
      -1.1562106268831091e+01 2.2169767191431949e-01
      2.5585331321421645e-01 8.0928712230942412e-01
      -7.5446894380903406e-01 -1.4982007042691825e+00
      9.2585378755385701e+00 7.5415928815619848e-01
      9.2932441373217767e+00 -5.6826856114132172e+00
      1.8872706214576004e-01 8.5401339727975092e+00
      -8.5489285419438643e-01 -7.2654723595204231e+00
      -1.3154893518332914e+01 -6.7030532993365028e+00
      8.2156098088322915e-01 1.2091566020218465e+01
      -1.6399644642689697e+00 -1.1304505913081233e+00
      5.3507053730405927e+00 -4.2642362029711283e+00
      3.9474313969957359e-01 -2.1197999469300215e+00
      7.2395898675648960e+00 3.9703757032295708e+00
      -1.6916037381284232e-01 -1.8017578891198865e-01
      -7.7026111032689615e+00 3.3218165953254450e+00
      4.7666569060965003e+00 -5.4780772263010666e+00
      7.2022212641562602e+00 3.7799025621052773e-01
      2.5069079680277856e-01 -1.1177696238623181e+01
      3.5146019720722599e+00 -2.8979391796680636e+00
      -1.1811056845312760e+00 -4.0967398828872987e+00
      -2.9593118710834014e+00 -7.9517964990339052e-01
      -2.9500668116251729e+00 -1.3855928043112357e+01
      6.4065132175778823e+00 8.3989855398137203e-01
      -3.9115642421055212e+00 -3.2670621966752089e-01
      -3.1298669007826785e+00 2.1334205060894944e+00
      1.7296229556906444e+00 3.1912293620993148e-01
      -3.7022377773362347e-01 1.1326472646136729e+01
      2.0929988606221261e+00 7.0894102844023021e-01
      -1.6309101438656066e+00 -1.1196222086160286e+00
      -7.3351868186284075e-01 2.9941578384517302e+00
      3.8891224577279498e-01 -1.1704332556887778e+00
      6.2382747537486365e+00 -7.2643562757359878e-02
      1.4203181715132667e+00 -4.7220035477407762e+00
      -9.9492533427032708e+00 -4.5440709107738426e+00
      5.1171129912590931e+00 1.9734671488561277e+00
      -2.4199463748715333e+00 -2.6056243744805929e+00
      1.3873004364315813e+00 9.6856872168676027e+00
      3.8126738472607102e-01 7.0628492406966781e-01
      -1.4047564916238193e+00 3.5222399719779474e+00
      -2.3617654662718390e+00 1.1189428964889203e+00
      -7.8446343638000027e-01 5.2030440587986615e-01
      1.3262154261715775e-01 2.0438400286842500e+00
      1.2344846152397300e-01 -1.2637719645463776e+00
      1.1019451566719900e+00 -9.0001309489779691e-02
      2.5342756712578209e+00 -6.8806463491706920e+00
      -6.2852207005349294e+00 -1.5429704000853715e+00
      6.1324281238754108e-01 -2.4927428384200039e+00
      -2.4157801738206266e+00 -1.3001106416691102e+00
      1.8655962320142661e+00 4.2602025351024224e+00
      1.3667309499867411e+00 2.4700770005558383e+00
      -1.5217565192595155e+00 6.2205581526059572e-01
      -1.2670397562353064e+00 -3.0643032039099913e+00
      -2.8502721722397006e+00 -2.3860796896842671e+00
      -6.1010747497686935e-01 -4.6196132014536975e+00
      2.7753096088584811e-01 9.7517739095447564e-01
      1.1863991282200175e+00 -1.3744453264282983e+00
      2.0163171489551495e+00 -4.9436312857401576e+00
      -1.3802548132664542e+01 -2.3350969890665914e+00
      3.4098695295347095e+00 3.4187099202225457e-01
      -1.2964230607910805e+00 -4.7160548786494658e+00
      -5.2457892406267383e+00 5.8086334907105028e+00
      2.3412214310770785e+00 3.9326722826204735e-01
      -5.2349877913995724e-01 1.3893020707781290e+00
      2.2380591470852953e+00 -8.4718379708254732e-01
      -2.0751868820119896e+00 -6.1151645056684751e+00
      -2.4763944145810003e-02 4.6380743669657623e-02
      2.7767855181895267e+00 -5.3255649292238416e-01
      -3.9843241071313745e-01 -1.1761208165949795e+00
      3.9869483453224159e+00 -3.0183252855637486e+00
      -7.7754357284730133e+00 -2.5176652634717454e+00
      5.5292748243378167e+00 -5.9889056667149088e-01
      -3.5971754186306097e+00 -3.7748422319327082e+00
      -1.1622882276518334e+00 1.1304698801698827e+00
      2.7217677775292879e+00 1.0871707393513315e+00
      -3.8424940269575159e-01 2.2634068588453160e+00
      2.6571052148720087e+00 7.1211740802328261e-01
      7.9927174725362116e-01 -6.0933172630222669e+00
      -2.5842829629269831e-01 -5.4430061389548612e-01
      -9.3091835785092358e-01 -2.8603703216442844e-02
      -2.5843264462582392e+00 1.5183708926646047e+00
      2.1897563191323464e+00 -2.1372215031479715e+00
      -7.8716447415675548e+00 -2.6447490442146186e+00
      3.0175546187307170e+00 -3.0387583086304165e-01
      -9.2280330660945131e-01 -2.5142492086975157e+00
      2.2880874932539812e+00 1.4694761553957567e+00
      1.6056809794908360e+00 -1.1567257454005253e+00
      -1.0761434207017020e+00 1.6455796966131859e+00
      2.9436157640916238e-01 2.5470341322600012e+00
      5.8473937728967396e-01 -1.3157364983605060e+00
      -9.9071958024584517e-02 -3.7786597323010778e+00
      9.5813630629619717e-01 -5.8720006387597679e-01
      -1.9682791111338884e+00 -4.1191630089517556e-01
      1.1774405497002962e+00 -5.4237119305957704e-01
      -3.7137055691579284e+00 -2.5416367171325294e+00
      1.0105191965203839e+00 -4.1006333769108055e-01
      -3.7610624738314691e-01 8.6683849651783473e-01
      1.1226806744766538e+00 8.5230432791868915e-01
      1.9238688478232782e+00 -3.0350212633126230e-02
      -8.6753490507672260e-01 9.4867566815291615e-01
      2.2856190786608260e-01 9.0977562431163750e-01
      1.6774627292844940e-01 -9.7270240847061717e-01
      -8.7723706193204520e-01 -1.6541781386902774e+00
      1.3361582336421680e+00 -6.1108856052066263e-01
      -6.8265003114475997e-01 2.9501001222577172e-01
      2.0940202199766680e+00 -4.7507989020321156e-01
      -3.3656570939310608e+00 -2.4643250168082163e+00
      1.2487658379004887e+00 -5.1786307726518335e-02
      1.3282884615298179e-01 -7.7231395322566909e-01
      9.2440126841196324e-01 1.1449578558040319e+00
      1.5578113020064894e+00 -9.7353252086968112e-01
      -6.5876459307665958e-01 1.9147970633221458e+00
      -8.1313507051708556e-01 3.1922504104496436e+00
      6.8971465670483234e-02 -1.3469598760852339e+00
      -9.9974541993379365e-02 -2.6148741634290174e+00
      7.9826392002159130e-01 3.9296077418290318e-02
      -8.2455444602460526e-01 -9.4519906249823218e-02
      2.4511971968902895e+00 -3.2682233246808808e-02
      -3.4685021824046354e+00 -2.4020906615065623e+00
      4.9606110995627051e-01 -6.1833288051266200e-01
      1.7129093574425290e-02 -1.9666644154914832e+00
      1.1494392737780532e+00 8.3125864987002240e-01
      1.4546168838292757e+00 -1.9792394231022095e+00
      -1.9035700146888487e-01 1.4544652344232394e+00
      -1.0841703737447514e+00 5.0650532456590556e+00
      4.4625036052566419e-01 -1.4464318809324632e+00
      -7.5263907064517643e-01 -4.2976209416363584e+00
      1.2973253639408955e+00 3.9386122336894369e-01
      -7.1306950540636360e-01 -9.3061415317052532e-01
      2.4262597473298739e+00 -1.2052778513913306e-01
      -3.6992771361591958e+00 -2.6752861909267276e+00
      -1.5485674926483328e-01 -4.8819148234892551e-01
      4.3597770821737952e-01 -7.1475194640186424e-01
      2.1804087616817625e+00 6.9509690257405055e-01
      1.4037760280056255e+00 -5.5852048706700164e-01
      -7.2054247424037965e-01 2.9771436898168084e+00
      5.5706008554160336e-01 4.5957697328737375e+00
      8.8072073114234461e-01 -1.8371890347989079e+00
      -4.9893430500162139e-01 -2.7428729567695567e+00
      8.6021861814302358e-01 3.4712623055777225e-01
      -9.2794334391078903e-01 3.3048225355013611e-01
      1.7445781669229203e+00 -2.4366768750581708e-01
      -3.3718645017896147e+00 -2.3386403171289274e+00
      5.6075348911904688e-01 -6.0620101788106506e-01
      -6.2314757530030053e-02 -2.6881396947672626e-02
      1.9707308254141036e+00 7.2610773404445239e-01
      1.5715053653513322e+00 -1.1121958869062103e-01
      -5.6215673798850463e-01 1.2912972372176559e+00
      9.7075096077914966e-02 3.0207454615230835e+00
      3.1774971865550833e-01 -1.6397748292686429e+00
      -2.2299132545981534e-01 -1.6921587513357887e+00
      1.1189046547123311e+00 2.5937803762107720e-01
      -5.0176889151789117e-01 8.8540036659777499e-02
      1.8037899086895035e+00 -1.7739722336853531e-01
      -3.3503943133125067e+00 -2.4575069371199474e+00
      5.2156528072910247e-01 -2.0891320107828018e-01
      -1.4218413503054855e-01 -1.1326192522235783e+00
      1.7120697271164158e+00 8.6604285612610554e-01
      1.2544474453708991e+00 -1.3203949458491848e+00
      -3.4958789703311999e-01 1.5285863997045790e+00
      2.0850810938027084e-01 3.7041368833198414e+00
      1.1863484981783072e+00 -1.9825868767307724e+00
      -7.2776308992602859e-02 -3.1194707401742323e+00
      1.1678151374619414e+00 6.6176856512260196e-01
      -6.4515935565470683e-01 -6.7060485365575406e-01
      1.3398390400476343e+00 -1.8775777579819856e-02
      -3.3334143321924636e+00 -2.3497342199559323e+00
      2.7396059767599146e-01 -6.5382750299966197e-01
      -1.6399547465907924e-01 -8.9619678517299994e-01
      9.2923478710339091e-01 9.3770383867962748e-01
      1.1809614056929634e+00 -1.7099890660745790e-01
      -4.2518078676169185e-01 3.1388368704090386e+00
      2.3912800569607375e+00 4.5869189071586352e+00
      2.0943682059257629e+00 -2.8601026595279890e+00
      -3.3807553396499136e-02 -2.9270242859877795e+00
      1.1990085645587423e+00 1.2099822106131747e-01
      -3.3503245452095198e+00 5.0118544656493902e-01
      2.0277549862611162e+00 2.5315065160444244e-01
      -3.6641837856670594e+00 -2.6187992010780503e+00
      2.6146512538709326e+00 -7.3760025299938448e-01
      2.8457367475817424e-02 -1.1187050320091475e-01
      2.7455635222265791e+00 1.3383302444647205e+00
      1.4056042336183907e+00 -8.2018584599530386e-01
      -4.7516209595701930e-01 5.0039595292666430e+00
      -3.5103821941165525e-01 3.2841001766878222e+00
      1.1397957831391177e+00 -2.1139759153498483e+00
      -6.1623356770380534e-02 -1.9647227345170282e+00
      1.1651194549078294e+00 6.0222927098334489e-01
      -4.6416143753914003e+00 1.0569941019894902e+00
      2.2483952848441309e+00 4.2243588474701159e-02
      -3.6882354373270365e+00 -2.5288188100000859e+00
      2.4481077379370513e+00 -6.2395823389544171e-02
      -6.8679715568816202e-01 -1.2134746922266257e+00
      2.3289112512478884e+00 9.3903516878241655e-01
      1.3209737911981361e+00 -7.9865564084630203e-01
      -4.0683570210424813e-01 1.9955360628184862e+00
      1.5501963043797733e+00 1.3341804179010670e+00
      6.8893607111671473e-01 -2.2130513260490527e+00
      5.4445828126919261e-02 -9.6554402223392299e-01
      1.8398038287341043e+00 3.2569607790257166e-01
      -4.1291789227525877e-01 -9.7244876967018473e-02
      1.9620631408322775e+00 -9.8599044736188479e-01
      -3.5074590835174235e+00 -2.7362794819459788e+00
      2.3777432675021934e+00 6.2316216933378721e-01
      -1.6686663894041682e+00 -1.3413165257948103e+00
      4.3552863814129781e+00 5.6089030039585797e-01
      9.3976874148975176e-01 -4.8931965951758523e+00
      -3.6494764200184493e-01 1.8507785608887533e+00
      2.8488755239635863e+00 4.9570062166843987e-01
      1.0937129609731095e+00 -2.0899353146922839e+00
      -3.0032791322099867e-01 7.9742529402378459e-01
      2.5014439749893835e+00 1.4151616690627658e-01
      -5.6515358381068892e-01 8.8109996930272572e-01
      2.0196961491069874e+00 -1.6125773421772238e+00
      -3.8792190004850120e+00 -3.0375819582493890e+00
      2.6444275449856525e+00 9.8340972059034770e-01
      -3.8404817775249689e-01 -1.0555033335902781e+00
      2.9568088594259483e+00 3.4244978598916220e-01
      1.1338669258823575e+00 -7.6932948152475911e+00
      -5.9171022229551562e-01 2.6141629453173771e+00
      1.6730677213494505e+00 3.9713362214466759e-02
      7.8001153416942903e-01 -2.4647349048843461e+00
      -1.0385906164451375e+00 -5.0841586504619674e-01
      1.9867380562632788e+00 2.7122560851320032e-01
      -1.8999648408671235e+00 1.1112495250883103e+00
      1.5701216440347670e+00 -8.7276685785177388e-01
      -4.0374531602045964e+00 -2.6101954713226454e+00
      2.0052532739315246e-01 8.6696758422008569e-01
      7.9254603395292724e+00 1.2080336471656556e+00
      -6.7352067454414213e+00 -5.7311925530871974e+00
      4.0767489682764235e-01 -9.7407391437172013e+00
      7.0174929426032433e+00 -8.9656656925543530e+00
      -8.3653547781346949e-01 -1.0100885170776110e+01
      -7.1982154704188712e+00 7.5135330648195415e+00
      4.1799010270124992e-01 -1.1840829594451000e+01
      -5.3382921717585932e+00 -8.4047581136066025e+00
      9.4406419413253815e+00 -1.0980240676643298e+00
      1.9907014481669277e-01 1.6239996468843696e+01
      -5.9850479238079926e+00 1.1247885802949792e+01
      1.3269891585683167e+00 3.3259952904277892e+00
      -8.0190921688615830e+00 -1.1696968696123111e+00
      7.4382341961571496e+00 5.8124597310928134e+00
      -9.7579415737651332e-01 8.7919955169956641e+00
      -8.6102322688945900e+00 7.3373737509304258e+00
      6.5388658966328006e-01 1.0517323400091330e+01
      6.7458740125768655e+00 -6.1631468499747770e+00
      -3.5700183805643887e-01 1.1006221850114661e+01
      5.9491897718946989e+00 9.4869100063336145e+00
      -8.2372659972932087e+00 -2.7209336170677906e-01
      -5.1086538374053203e-01 -1.3082741488215385e+01
      4.0630855117612921e+00 -1.1758217377146684e+01
      -1.8582765850307452e+00 -2.6436314932037219e+00
      -3.9009331396480609e+00 3.8747068828899360e+00
      -1.5674240401952456e+01 -4.5313553326529581e+00
      -8.8645055223294484e+00 -4.8290068626433555e+00
      -6.8480701372340684e+00 -4.9837505840496865e+00
      -4.6079791995411234e-01 2.5460054316684598e+01
      2.2588475423151522e+00 2.2026153833761217e+00
      -7.2139510506808859e+00 9.3377577814530337e+00
      -3.4082763843826175e-01 3.5780048265669229e+00
      -1.9485490805004801e+00 -5.3959502805296120e+00
      -3.7020840806187150e+00 9.4940773790260680e-01
      2.1278692413294213e+01 1.4999406860061240e+01
      -6.1896043509352454e+00 -1.3426397544868790e+01</_>
    <_>
      -6.6370447159113226e+00 3.3762632975164162e+00
      9.3048402464349989e-01 -1.2334610165362609e+01
      2.2685289311298038e+00 2.9640795288682251e+00
      4.4321970176360841e+00 -5.5481600021442867e-02
      7.2307487504148096e+00 -2.3927826165898508e-01
      -4.2822423417057669e+00 -8.6178920377898347e+00
      -2.7830776290191244e+00 -1.6404054707317830e+00
      9.3221452166447194e-01 -5.2648043445550408e-02
      -4.7681441207388847e-01 5.4517439561833552e+00
      -5.0446679429936241e+00 -1.4970752002175693e+00
      -2.7835376465153594e+00 5.2078796457611087e+00
      4.6609892290226185e+00 -9.7006500660110767e-03
      -3.1998008221418788e+00 3.7444826440828685e+00
      7.7924912774696846e+00 -8.0613022743501350e+00
      -4.2209877080774199e+00 5.5473401261607664e+00
      3.0063568693797675e+00 -1.7586025232281803e-02
      3.1085487923952262e+00 -2.6231481009829913e+00
      -5.0645194804357239e+00 -1.4703056624611401e+00
      3.6785771657896569e+00 4.4315314220928492e+00
      1.8695771909211105e+00 6.7636746380909316e-02
      -9.7670705906611079e+00 -1.9718690135459589e+00
      5.9613527560083233e+00 -5.6829561291607913e+00
      -2.3447901583311523e+00 -3.8263122290381903e+00
      -1.8950066077020176e+00 -4.1554551053252987e-02
      2.7970697716793791e+00 -3.1623817574554824e-01
      4.1867165954931513e+00 -3.1516001318766191e+00
      -4.1127557301130108e-01 -2.2495538692720327e+00
      7.7356421924779530e+00 -1.1031903009869965e-02
      1.1752305959965321e+00 9.3970136060681462e+00
      -6.0740028461440705e+00 5.5347101305422806e+00
      -8.2280858142201083e+00 -8.1888896544719758e-01
      -4.4225444298068233e+00 7.2183642797283329e-02
      -4.7014760297008538e+00 1.0781780513329132e+01
      -4.1784999162717353e+00 -3.8357623190159056e+00
      5.4229195892654340e+00 -4.9542820934602183e+00
      9.6115460707090357e+00 3.5189753775058875e-02
      1.5397872745813919e+01 4.4940800427095751e-01
      8.6771326736946852e-01 -7.7379481059926398e+00
      -3.5032323930917122e+00 -9.0677189713031243e+00
      -7.9172749893379697e+00 1.3028251984621098e-01
      9.0103843843269633e+00 5.0515212259746454e+00
      -6.0470170295636754e+00 -5.6066024129299175e+00
      -2.3727954672446611e-02 -1.0835318521152015e+00
      -4.1018533010449554e+00 -4.2239648288341647e-02
      3.9374347989891363e+00 1.3514903824142921e+00
      5.8709315516585689e-02 9.7751343947403697e+00
      -4.1942822904523336e+00 7.5307169906682905e+00
      3.3882589232919367e+00 1.0973252392969320e-02
      1.2506196864267590e+01 8.9479797090351703e+00
      5.9750222903108510e+00 8.0114013325114772e+00
      5.3096152734584490e-01 4.9201220001626762e+00
      3.0924605297790242e+00 -5.8468539716773862e-02
      7.9627847422833522e+00 5.2890121168330175e+00
      4.2364691258697773e+00 -3.2637296268910432e+00
      -4.7653525910416172e-01 -2.1747997973628319e+00
      5.9628535006915548e+00 8.6016719236039513e-02
      3.8699446206164327e-02 -9.2814683876751456e+00
      -9.2623229524085182e-01 8.9205933494588390e+00
      4.1291625504224525e+00 1.5691834977735670e+00
      1.8480965715384507e+00 9.7054545734024493e-03
      -8.0936093223758654e+00 -5.5681838031087789e+00
      5.0881907243991451e+00 -4.1274493027528587e+00
      8.7405465593151732e-01 -6.1898303142914042e+00
      -1.9633786228611012e+00 -1.0062714712053739e-02
      -8.5328669391791365e+00 -3.2044319848948546e+00
      6.0572327418007541e-02 -3.3244037217143636e+00
      -3.9992550876898059e+00 6.2294664748836830e+00
      1.2530851929127143e+00 -8.3584766284920453e-02
      9.6735643484267850e+00 5.5248835359697317e+00
      -1.8414573150528728e+00 3.4615659904538503e+00
      -8.0520857222757736e-01 4.0663195534226881e-01
      4.7303617316669406e+00 8.6802689237628905e-03
      1.5730785003362238e+01 -7.1886769032985018e+00
      7.0269438674024700e+00 -7.6297566101616221e-01
      -9.3829830369426437e-01 2.3181391020617679e+00
      -1.9479447093665065e+00 -1.0757520905871679e-01
      1.5064891515251695e+01 -3.3616578157670745e+00
      -1.9006109979644630e+00 -2.5399165902019543e+00
      4.9018875862275171e-02 -3.3957609569797875e+00
      -4.7276803541413066e-02 -7.3326901630090133e-02
      9.8678362978959278e-01 4.3518022169431676e+00
      7.1469802335045411e+00 -3.4401387582531386e+00
      1.3740584479089464e+00 -2.3810383649194504e+00
      -1.0376137081356953e+01 -6.9296456539333251e-02
      1.8629286538273531e+00 2.3894527969620047e-01
      -4.4035934709154381e+00 3.5396090392863262e+00
      -1.0939265009298325e+00 3.7897585997476552e-01
      -1.0494415325426171e+01 2.0056336467761809e-03
      -8.0331415779486885e+00 2.2336854108766881e+00
      6.2127345253505323e-03 1.0122061704347007e+00
      2.1802422776829284e+00 -1.6671217432925627e+00
      2.5524448388753713e+00 1.7408849879940420e-02
      7.4955801891162404e+00 7.1986564782801998e-01
      7.0906256061216560e-02 -6.3295079574611020e+00
      8.1681852267000732e+00 -3.2112453304419937e+00
      -1.5410568639793064e-02 2.4488703244045867e-02
      -1.3759336398715192e+01 -9.4014807389983464e+00
      -5.9396085134598380e+00 -8.6631541436569446e+00
      -2.2018418955269357e+00 -6.1918123875902866e+00
      -4.5203368890629330e+00 7.7472013379705856e-02</_></weights></opencv_ml_ann_mlp>
</opencv_storage>
